//Numpy array shape [3, 3, 3, 16]
//Min -0.406250000000
//Max 0.406250000000
//Number of zeros 216

#ifndef W2_H_
#define W2_H_

#ifndef __SYNTHESIS__
weight2_t w2[432];
#else
weight2_t w2[432] = {-1.00000, 0.00000, 0.00000, 0.00000, -0.68750, 0.00000, 0.81250, 0.00000, -1.00000, 0.00000, -0.75000, 0.00000, -0.90625, 0.93750, -0.68750, 0.00000, -0.90625, -0.68750, 0.00000, 0.00000, 0.00000, 0.78125, 0.00000, 0.00000, 0.00000, 0.00000, -0.50000, -0.65625, 0.00000, 0.00000, 0.00000, -1.00000, 0.00000, 0.00000, -0.75000, 0.00000, 0.00000, 0.00000, 0.96875, 0.00000, -0.71875, 0.00000, 0.00000, -1.00000, 0.00000, 0.00000, 0.00000, 0.75000, 0.00000, -0.34375, 0.00000, 0.00000, 0.00000, -0.81250, 0.00000, -1.00000, -1.00000, 0.00000, 0.00000, 0.00000, 0.00000, 0.00000, -0.53125, 0.00000, 0.00000, 0.00000, 0.00000, -1.00000, -0.71875, 0.00000, 0.00000, -0.90625, 0.00000, -1.00000, 0.34375, 0.00000, -0.50000, 0.96875, 0.00000, 0.96875, 0.65625, 0.00000, 0.00000, 0.96875, -1.00000, 0.00000, 0.00000, 0.50000, -0.75000, 0.00000, 0.56250, -1.00000, -0.84375, 0.56250, 0.00000, 0.96875, 0.96875, 0.62500, -0.68750, 0.00000, 0.00000, 0.00000, -0.96875, -1.00000, 0.00000, -1.00000, -0.75000, 0.00000, -1.00000, 0.00000, 0.00000, 0.96875, 0.96875, 0.00000, 0.00000, -1.00000, 0.00000, 0.96875, 0.43750, 0.00000, 0.00000, 0.00000, 0.00000, 0.00000, 0.00000, 0.71875, -0.43750, 0.96875, 0.00000, 0.00000, 0.93750, 0.00000, 0.00000, -0.90625, -0.96875, 0.75000, 0.00000, 0.00000, 0.00000, -0.62500, 0.00000, 0.00000, 0.62500, -1.00000, 0.53125, -0.43750, 0.00000, 0.00000, 0.87500, 0.00000, 0.00000, 0.00000, 0.00000, -1.00000, 0.00000, -0.84375, 0.00000, -1.00000, 0.00000, 0.00000, -1.00000, 0.00000, 0.00000, 0.00000, 0.96875, 0.00000, 0.56250, 0.81250, 0.96875, 0.00000, -0.43750, 0.00000, 0.00000, 0.00000, 0.00000, -1.00000, -1.00000, 0.00000, -0.81250, -0.65625, 0.81250, 0.96875, 0.59375, 0.00000, 0.96875, 0.96875, 0.00000, 0.53125, 0.00000, 0.00000, 0.00000, 0.00000, 0.00000, 0.00000, 0.96875, 0.00000, 0.00000, 0.96875, 0.00000, 0.00000, 0.96875, 0.00000, 0.00000, 0.00000, 0.00000, 0.00000, 0.00000, 0.96875, 0.00000, -0.40625, 0.96875, 0.96875, 0.00000, 0.00000, 0.00000, 0.00000, 0.00000, 0.96875, 0.00000, 0.96875, 0.00000, 0.96875, 0.00000, 0.96875, 0.00000, 0.00000, 0.00000, 0.87500, 0.00000, 0.00000, 0.00000, -1.00000, 0.00000, -1.00000, -0.65625, 0.00000, 0.00000, -1.00000, 0.00000, 0.00000, 0.96875, 0.00000, 0.00000, -0.75000, 0.56250, 0.59375, 0.00000, 0.96875, 0.78125, 0.96875, 0.50000, 0.00000, 0.90625, 0.90625, -0.62500, 0.96875, 0.75000, -0.68750, 0.00000, 0.00000, -0.87500, -0.90625, 0.00000, -1.00000, -1.00000, -1.00000, 0.00000, 0.96875, 0.00000, -0.65625, 0.00000, 0.00000, 0.96875, 0.00000, 0.00000, 0.71875, 0.00000, -1.00000, -1.00000, 0.00000, -0.84375, -1.00000, -0.68750, 0.00000, 0.00000, 0.00000, 0.53125, 0.78125, -1.00000, 0.00000, 0.96875, -1.00000, -1.00000, 0.96875, 0.00000, 0.96875, 0.96875, 0.93750, 0.00000, 0.00000, 0.00000, 0.00000, -0.50000, -1.00000, 0.00000, -0.43750, 0.00000, 0.00000, 0.00000, 0.00000, 0.00000, -0.78125, 0.96875, 0.00000, 0.00000, 0.00000, -0.43750, -1.00000, -0.37500, -1.00000, -1.00000, 0.00000, 0.96875, -1.00000, 0.93750, 0.00000, 0.78125, 0.87500, 0.96875, 0.00000, -0.37500, 0.00000, 0.00000, 0.00000, -0.37500, -1.00000, -1.00000, 0.00000, 0.00000, 0.00000, 0.00000, 0.00000, 0.00000, -0.56250, -0.56250, 0.96875, -0.81250, 0.68750, 0.96875, 0.00000, -0.53125, -1.00000, 0.78125, 0.00000, -0.75000, 0.00000, 0.96875, -1.00000, 0.00000, -0.65625, 0.00000, 0.96875, -0.34375, 0.00000, 0.00000, 0.00000, 0.00000, -1.00000, -1.00000, 0.56250, 0.00000, 0.00000, 0.00000, 0.53125, 0.00000, 0.00000, 0.96875, 0.00000, 0.00000, 0.00000, 0.81250, 0.59375, 0.00000, 0.00000, 0.00000, -0.43750, -1.00000, -0.68750, 0.00000, -1.00000, 0.62500, 0.00000, 0.00000, -0.90625, 0.53125, 0.00000, 0.78125, 0.00000, -1.00000, -1.00000, 0.96875, -0.56250, -1.00000, 0.00000, 0.50000, -1.00000, -1.00000, 0.96875, 0.00000, 0.00000, -0.46875, 0.78125, 0.00000, -1.00000, -0.68750, 0.96875, 0.87500, -0.59375, 0.00000, 0.00000, -1.00000, 0.53125, -0.84375, 0.96875, -1.00000, 0.96875, -0.75000, 0.68750, 0.00000, 0.00000, 0.00000, -1.00000};
#endif

#endif
